<?xml version="1.0" encoding="UTF-8"?>
<BIF VERSION="0.3"  xmlns="http://www.cs.ubc.ca/labs/lci/fopi/ve/XMLBIFv0_3"
	xmlns:xsi="http://www.w3.org/2001/XMLSchema-instance"
	xsi:schemaLocation="http://www.cs.ubc.ca/labs/lci/fopi/ve/XMLBIFv0_3 http://www.cs.ubc.ca/labs/lci/fopi/ve/XMLBIFv0_3/XMLBIFv0_3.xsd">
<NETWORK>
<NAME>BN1</NAME>
<PROPERTY>detailed = </PROPERTY>
<PROPERTY>short = </PROPERTY>

<VARIABLE TYPE="nature">
	<NAME>Phishing</NAME>
	<OUTCOME>T</OUTCOME>
	<OUTCOME>F</OUTCOME>
	<OBS>T</OBS>
	<PROPERTY>position = (7066.42041015625, 5403.19189453125)</PROPERTY>
</VARIABLE>

<VARIABLE TYPE="nature">
	<NAME>Email</NAME>
	<OUTCOME>Personal</OUTCOME>
	<OUTCOME>Business</OUTCOME>
	<PROPERTY>position = (7500.72216796875, 5399.27880859375)</PROPERTY>
</VARIABLE>

<VARIABLE TYPE="nature">
	<NAME>Phishing Detected</NAME>
	<OUTCOME>T</OUTCOME>
	<OUTCOME>F</OUTCOME>
	<PROPERTY>position = (7420.5126953125, 5585.12890625)</PROPERTY>
</VARIABLE>

<VARIABLE TYPE="nature">
	<NAME>Maintenance</NAME>
	<OUTCOME>T</OUTCOME>
	<OUTCOME>F</OUTCOME>
	<PROPERTY>position = (7790.2578125, 5047.142578125)</PROPERTY>
</VARIABLE>

<VARIABLE TYPE="nature">
	<NAME>Firewall</NAME>
	<OUTCOME>On</OUTCOME>
	<OUTCOME>Off</OUTCOME>
	<PROPERTY>position = (7811.7763671875, 5289.7255859375)</PROPERTY>
</VARIABLE>

<VARIABLE TYPE="nature">
	<NAME>Maintenance Info Outdated</NAME>
	<OUTCOME>T</OUTCOME>
	<OUTCOME>F</OUTCOME>
	<PROPERTY>position = (8161.95703125, 5289.7255859375)</PROPERTY>
</VARIABLE>

<VARIABLE TYPE="nature">
	<NAME>Network Protected</NAME>
	<OUTCOME>T</OUTCOME>
	<OUTCOME>F</OUTCOME>
	<PROPERTY>position = (7927.19921875, 5497.09521484375)</PROPERTY>
</VARIABLE>

<VARIABLE TYPE="nature">
	<NAME>Work Day</NAME>
	<OUTCOME>T</OUTCOME>
	<OUTCOME>F</OUTCOME>
	<PROPERTY>position = (8568.87109375, 5287.76904296875)</PROPERTY>
</VARIABLE>

<VARIABLE TYPE="nature">
	<NAME>DDoS Chance</NAME>
	<OUTCOME>High</OUTCOME>
	<OUTCOME>Low</OUTCOME>
	<PROPERTY>position = (8516.05078125, 5461.880859375)</PROPERTY>
</VARIABLE>

<VARIABLE TYPE="nature">
	<NAME>Activity</NAME>
	<OUTCOME>Normal</OUTCOME>
	<OUTCOME>Anomalous</OUTCOME>
	<PROPERTY>position = (8850.580078125, 5248.64208984375)</PROPERTY>
</VARIABLE>

<VARIABLE TYPE="nature">
	<NAME>Logged</NAME>
	<OUTCOME>T</OUTCOME>
	<OUTCOME>F</OUTCOME>
	<PROPERTY>position = (8815.3671875, 5465.7939453125)</PROPERTY>
</VARIABLE>

<VARIABLE TYPE="nature">
	<NAME>Alert</NAME>
	<OUTCOME>T</OUTCOME>
	<OUTCOME>F</OUTCOME>
	<PROPERTY>position = (8222.6025390625, 5686.857421875)</PROPERTY>
</VARIABLE>

<DEFINITION>
	<FOR>Phishing</FOR>
	<TABLE>0.2 0.8</TABLE>
</DEFINITION>

<DEFINITION>
	<FOR>Email</FOR>
	<TABLE>0.1 0.9</TABLE>
</DEFINITION>

<DEFINITION>
	<FOR>Phishing Detected</FOR>
	<GIVEN>Phishing</GIVEN>
	<GIVEN>Email</GIVEN>
	<TABLE>0.99 0.01 0.967 0.033 0.15 0.85 0.0165 0.9835</TABLE>
</DEFINITION>

<DEFINITION>
	<FOR>Maintenance</FOR>
	<TABLE>0.75 0.25</TABLE>
</DEFINITION>

<DEFINITION>
	<FOR>Firewall</FOR>
	<GIVEN>Maintenance</GIVEN>
	<TABLE>0.95 0.05 1.0 0.0</TABLE>
</DEFINITION>

<DEFINITION>
	<FOR>Maintenance Info Outdated</FOR>
	<TABLE>0.02 0.98</TABLE>
</DEFINITION>

<DEFINITION>
	<FOR>Network Protected</FOR>
	<GIVEN>Firewall</GIVEN>
	<GIVEN>Maintenance Info Outdated</GIVEN>
	<TABLE>0.9 0.1 1.0 0.0 0.0 1.0 0.01 0.99</TABLE>
</DEFINITION>

<DEFINITION>
	<FOR>Work Day</FOR>
	<TABLE>0.72 0.28</TABLE>
</DEFINITION>

<DEFINITION>
	<FOR>DDoS Chance</FOR>
	<GIVEN>Work Day</GIVEN>
	<TABLE>0.01 0.99 0.1 0.9</TABLE>
</DEFINITION>

<DEFINITION>
	<FOR>Activity</FOR>
	<TABLE>0.9 0.1</TABLE>
</DEFINITION>

<DEFINITION>
	<FOR>Logged</FOR>
	<GIVEN>Activity</GIVEN>
	<TABLE>0.3 0.7 0.7 0.3</TABLE>
</DEFINITION>

<DEFINITION>
	<FOR>Alert</FOR>
	<GIVEN>Phishing Detected</GIVEN>
	<GIVEN>Network Protected</GIVEN>
	<GIVEN>DDoS Chance</GIVEN>
	<GIVEN>Logged</GIVEN>
	<TABLE>0.48 0.52 0.4 0.6 0.24 0.76 0.16 0.84 0.8 0.2 0.72 0.28 0.56 0.44 0.48 0.52 0.32 0.68 0.24 0.76 0.08 0.92 8.0E-5 0.99992 0.64 0.36 0.56 0.44 0.4 0.6 0.32 0.68</TABLE>
</DEFINITION>
</NETWORK>
</BIF>
